digraph Tree {
node [shape=box] ;
0 [label="X[4] <= 31.0\nmse = 262.211\nsamples = 1875\nvalue = 38.091"] ;
1 [label="X[4] <= 16.0\nmse = 62.407\nsamples = 387\nvalue = 16.129"] ;
0 -> 1 [labeldistance=2.5, labelangle=45, headlabel="True"] ;
2 [label="X[4] <= 10.0\nmse = 13.268\nsamples = 178\nvalue = 9.337"] ;
1 -> 2 ;
3 [label="X[4] <= 7.0\nmse = 2.808\nsamples = 105\nvalue = 6.857"] ;
2 -> 3 ;
4 [label="X[7] <= 2016.5\nmse = 0.877\nsamples = 64\nvalue = 5.672"] ;
3 -> 4 ;
5 [label="mse = 0.0\nsamples = 51\nvalue = 6.0"] ;
4 -> 5 ;
6 [label="mse = 2.237\nsamples = 13\nvalue = 4.385"] ;
4 -> 6 ;
7 [label="X[4] <= 8.5\nmse = 0.207\nsamples = 41\nvalue = 8.707"] ;
3 -> 7 ;
8 [label="mse = 0.0\nsamples = 12\nvalue = 8.0"] ;
7 -> 8 ;
9 [label="mse = 0.0\nsamples = 29\nvalue = 9.0"] ;
7 -> 9 ;
10 [label="X[4] <= 13.0\nmse = 6.744\nsamples = 73\nvalue = 12.904"] ;
2 -> 10 ;
11 [label="X[10] <= 84.0\nmse = 3.214\nsamples = 28\nvalue = 11.0"] ;
10 -> 11 ;
12 [label="mse = 1.904\nsamples = 18\nvalue = 11.389"] ;
11 -> 12 ;
13 [label="mse = 4.81\nsamples = 10\nvalue = 10.3"] ;
11 -> 13 ;
14 [label="X[10] <= 74.5\nmse = 5.281\nsamples = 45\nvalue = 14.089"] ;
10 -> 14 ;
15 [label="mse = 13.5\nsamples = 12\nvalue = 12.0"] ;
14 -> 15 ;
16 [label="X[9] <= 2015.5\nmse = 0.129\nsamples = 33\nvalue = 14.848"] ;
14 -> 16 ;
17 [label="mse = 0.0\nsamples = 23\nvalue = 15.0"] ;
16 -> 17 ;
18 [label="mse = 0.25\nsamples = 10\nvalue = 14.5"] ;
16 -> 18 ;
19 [label="X[4] <= 22.0\nmse = 31.505\nsamples = 209\nvalue = 21.914"] ;
1 -> 19 ;
20 [label="X[8] <= 2.5\nmse = 11.189\nsamples = 86\nvalue = 17.791"] ;
19 -> 20 ;
21 [label="X[4] <= 19.0\nmse = 2.813\nsamples = 65\nvalue = 18.646"] ;
20 -> 21 ;
22 [label="X[4] <= 17.5\nmse = 0.247\nsamples = 38\nvalue = 17.553"] ;
21 -> 22 ;
23 [label="mse = 0.0\nsamples = 17\nvalue = 17.0"] ;
22 -> 23 ;
24 [label="mse = 0.0\nsamples = 21\nvalue = 18.0"] ;
22 -> 24 ;
25 [label="X[11] <= 70.5\nmse = 2.373\nsamples = 27\nvalue = 20.185"] ;
21 -> 25 ;
26 [label="mse = 5.44\nsamples = 10\nvalue = 19.6"] ;
25 -> 26 ;
27 [label="mse = 0.249\nsamples = 17\nvalue = 20.529"] ;
25 -> 27 ;
28 [label="X[11] <= 132.0\nmse = 27.837\nsamples = 21\nvalue = 15.143"] ;
20 -> 28 ;
29 [label="mse = 25.65\nsamples = 10\nvalue = 13.5"] ;
28 -> 29 ;
30 [label="mse = 25.14\nsamples = 11\nvalue = 16.636"] ;
28 -> 30 ;
31 [label="X[2] <= 7.5\nmse = 25.512\nsamples = 123\nvalue = 24.797"] ;
19 -> 31 ;
32 [label="X[4] <= 25.0\nmse = 9.312\nsamples = 112\nvalue = 25.973"] ;
31 -> 32 ;
33 [label="X[0] <= 1670.0\nmse = 2.173\nsamples = 31\nvalue = 23.387"] ;
32 -> 33 ;
34 [label="mse = 3.158\nsamples = 19\nvalue = 23.0"] ;
33 -> 34 ;
35 [label="mse = 0.0\nsamples = 12\nvalue = 24.0"] ;
33 -> 35 ;
36 [label="X[4] <= 27.5\nmse = 8.505\nsamples = 81\nvalue = 26.963"] ;
32 -> 36 ;
37 [label="X[8] <= 1.5\nmse = 5.958\nsamples = 49\nvalue = 25.959"] ;
36 -> 37 ;
38 [label="X[4] <= 26.5\nmse = 0.25\nsamples = 39\nvalue = 26.513"] ;
37 -> 38 ;
39 [label="mse = 0.0\nsamples = 19\nvalue = 26.0"] ;
38 -> 39 ;
40 [label="mse = 0.0\nsamples = 20\nvalue = 27.0"] ;
38 -> 40 ;
41 [label="mse = 22.36\nsamples = 10\nvalue = 23.8"] ;
37 -> 41 ;
42 [label="X[8] <= 1.5\nmse = 8.5\nsamples = 32\nvalue = 28.5"] ;
36 -> 42 ;
43 [label="mse = 0.367\nsamples = 17\nvalue = 29.471"] ;
42 -> 43 ;
44 [label="mse = 15.44\nsamples = 15\nvalue = 27.4"] ;
42 -> 44 ;
45 [label="mse = 32.876\nsamples = 11\nvalue = 12.818"] ;
31 -> 45 ;
46 [label="X[19] <= 1.5\nmse = 156.106\nsamples = 1488\nvalue = 43.803"] ;
0 -> 46 [labeldistance=2.5, labelangle=-45, headlabel="False"] ;
47 [label="X[4] <= 46.0\nmse = 117.163\nsamples = 1200\nvalue = 46.362"] ;
46 -> 47 ;
48 [label="X[3] <= 2.5\nmse = 37.886\nsamples = 242\nvalue = 35.054"] ;
47 -> 48 ;
49 [label="X[4] <= 37.0\nmse = 21.277\nsamples = 232\nvalue = 35.892"] ;
48 -> 49 ;
50 [label="X[4] <= 34.0\nmse = 6.429\nsamples = 138\nvalue = 33.696"] ;
49 -> 50 ;
51 [label="X[11] <= 26.5\nmse = 4.992\nsamples = 55\nvalue = 32.091"] ;
50 -> 51 ;
52 [label="mse = 18.248\nsamples = 11\nvalue = 30.545"] ;
51 -> 52 ;
53 [label="X[4] <= 32.5\nmse = 0.931\nsamples = 44\nvalue = 32.477"] ;
51 -> 53 ;
54 [label="mse = 0.0\nsamples = 17\nvalue = 32.0"] ;
53 -> 54 ;
55 [label="X[7] <= 2017.5\nmse = 1.284\nsamples = 27\nvalue = 32.778"] ;
53 -> 55 ;
56 [label="mse = 3.24\nsamples = 10\nvalue = 32.4"] ;
55 -> 56 ;
57 [label="mse = 0.0\nsamples = 17\nvalue = 33.0"] ;
55 -> 57 ;
58 [label="X[8] <= 1.5\nmse = 4.544\nsamples = 83\nvalue = 34.759"] ;
50 -> 58 ;
59 [label="X[4] <= 35.5\nmse = 0.132\nsamples = 64\nvalue = 35.156"] ;
58 -> 59 ;
60 [label="mse = 0.0\nsamples = 54\nvalue = 35.0"] ;
59 -> 60 ;
61 [label="mse = 0.0\nsamples = 10\nvalue = 36.0"] ;
59 -> 61 ;
62 [label="mse = 17.086\nsamples = 19\nvalue = 33.421"] ;
58 -> 62 ;
63 [label="X[2] <= 7.5\nmse = 25.593\nsamples = 94\nvalue = 39.117"] ;
49 -> 63 ;
64 [label="X[2] <= 2.5\nmse = 5.639\nsamples = 83\nvalue = 40.59"] ;
63 -> 64 ;
65 [label="X[4] <= 40.0\nmse = 4.252\nsamples = 71\nvalue = 41.127"] ;
64 -> 65 ;
66 [label="X[0] <= 1314.5\nmse = 0.222\nsamples = 24\nvalue = 38.667"] ;
65 -> 66 ;
67 [label="mse = 0.09\nsamples = 10\nvalue = 38.9"] ;
66 -> 67 ;
68 [label="mse = 0.25\nsamples = 14\nvalue = 38.5"] ;
66 -> 68 ;
69 [label="X[0] <= 1904.0\nmse = 1.641\nsamples = 47\nvalue = 42.383"] ;
65 -> 69 ;
70 [label="X[1] <= 1185.0\nmse = 1.076\nsamples = 36\nvalue = 42.083"] ;
69 -> 70 ;
71 [label="mse = 2.188\nsamples = 12\nvalue = 42.75"] ;
70 -> 71 ;
72 [label="X[0] <= 1096.5\nmse = 0.188\nsamples = 24\nvalue = 41.75"] ;
70 -> 72 ;
73 [label="mse = 0.0\nsamples = 14\nvalue = 42.0"] ;
72 -> 73 ;
74 [label="mse = 0.24\nsamples = 10\nvalue = 41.4"] ;
72 -> 74 ;
75 [label="mse = 2.231\nsamples = 11\nvalue = 43.364"] ;
69 -> 75 ;
76 [label="mse = 2.076\nsamples = 12\nvalue = 37.417"] ;
64 -> 76 ;
77 [label="mse = 36.182\nsamples = 11\nvalue = 28.0"] ;
63 -> 77 ;
78 [label="mse = 28.44\nsamples = 10\nvalue = 15.6"] ;
48 -> 78 ;
79 [label="X[19] <= 0.5\nmse = 96.728\nsamples = 958\nvalue = 49.218"] ;
47 -> 79 ;
80 [label="X[9] <= 2011.5\nmse = 76.733\nsamples = 655\nvalue = 52.255"] ;
79 -> 80 ;
81 [label="mse = 1299.76\nsamples = 10\nvalue = 78.2"] ;
80 -> 81 ;
82 [label="X[4] <= 76.0\nmse = 47.174\nsamples = 645\nvalue = 51.853"] ;
80 -> 82 ;
83 [label="X[9] <= 2016.5\nmse = 55.404\nsamples = 176\nvalue = 47.568"] ;
82 -> 83 ;
84 [label="X[2] <= 16.5\nmse = 66.844\nsamples = 74\nvalue = 42.473"] ;
83 -> 84 ;
85 [label="X[10] <= 87.0\nmse = 42.07\nsamples = 34\nvalue = 46.559"] ;
84 -> 85 ;
86 [label="mse = 43.136\nsamples = 18\nvalue = 43.444"] ;
85 -> 86 ;
87 [label="mse = 17.684\nsamples = 16\nvalue = 50.062"] ;
85 -> 87 ;
88 [label="X[4] <= 61.5\nmse = 61.65\nsamples = 40\nvalue = 39.0"] ;
84 -> 88 ;
89 [label="mse = 49.41\nsamples = 10\nvalue = 29.7"] ;
88 -> 89 ;
90 [label="X[4] <= 67.5\nmse = 27.29\nsamples = 30\nvalue = 42.1"] ;
88 -> 90 ;
91 [label="mse = 22.16\nsamples = 15\nvalue = 39.8"] ;
90 -> 91 ;
92 [label="mse = 21.84\nsamples = 15\nvalue = 44.4"] ;
90 -> 92 ;
93 [label="X[4] <= 64.0\nmse = 14.606\nsamples = 102\nvalue = 51.265"] ;
83 -> 93 ;
94 [label="X[2] <= 10.5\nmse = 11.555\nsamples = 72\nvalue = 49.972"] ;
93 -> 94 ;
95 [label="X[4] <= 51.5\nmse = 8.251\nsamples = 62\nvalue = 50.677"] ;
94 -> 95 ;
96 [label="X[11] <= 216.5\nmse = 0.953\nsamples = 23\nvalue = 47.783"] ;
95 -> 96 ;
97 [label="mse = 0.462\nsamples = 13\nvalue = 48.0"] ;
96 -> 97 ;
98 [label="mse = 1.45\nsamples = 10\nvalue = 47.5"] ;
96 -> 98 ;
99 [label="X[0] <= 1311.0\nmse = 4.698\nsamples = 39\nvalue = 52.385"] ;
95 -> 99 ;
100 [label="mse = 5.107\nsamples = 11\nvalue = 50.727"] ;
99 -> 100 ;
101 [label="X[10] <= 86.0\nmse = 3.034\nsamples = 28\nvalue = 53.036"] ;
99 -> 101 ;
102 [label="mse = 4.41\nsamples = 10\nvalue = 53.7"] ;
101 -> 102 ;
103 [label="mse = 1.889\nsamples = 18\nvalue = 52.667"] ;
101 -> 103 ;
104 [label="mse = 9.84\nsamples = 10\nvalue = 45.6"] ;
94 -> 104 ;
105 [label="X[4] <= 65.5\nmse = 8.299\nsamples = 30\nvalue = 54.367"] ;
93 -> 105 ;
106 [label="mse = 0.0\nsamples = 14\nvalue = 53.0"] ;
105 -> 106 ;
107 [label="mse = 12.496\nsamples = 16\nvalue = 55.562"] ;
105 -> 107 ;
108 [label="X[3] <= 74.5\nmse = 34.611\nsamples = 469\nvalue = 53.461"] ;
82 -> 108 ;
109 [label="X[9] <= 2016.5\nmse = 27.481\nsamples = 386\nvalue = 54.65"] ;
108 -> 109 ;
110 [label="X[4] <= 124.5\nmse = 26.763\nsamples = 308\nvalue = 53.513"] ;
109 -> 110 ;
111 [label="X[11] <= 39.5\nmse = 41.076\nsamples = 98\nvalue = 50.602"] ;
110 -> 111 ;
112 [label="mse = 49.959\nsamples = 14\nvalue = 44.571"] ;
111 -> 112 ;
113 [label="X[1] <= 2508.5\nmse = 32.524\nsamples = 84\nvalue = 51.607"] ;
111 -> 113 ;
114 [label="X[4] <= 91.5\nmse = 23.188\nsamples = 73\nvalue = 52.356"] ;
113 -> 114 ;
115 [label="mse = 26.595\nsamples = 17\nvalue = 49.588"] ;
114 -> 115 ;
116 [label="X[0] <= 1089.5\nmse = 19.122\nsamples = 56\nvalue = 53.196"] ;
114 -> 116 ;
117 [label="mse = 11.61\nsamples = 10\nvalue = 56.7"] ;
116 -> 117 ;
118 [label="X[3] <= 9.0\nmse = 17.507\nsamples = 46\nvalue = 52.435"] ;
116 -> 118 ;
119 [label="mse = 15.5\nsamples = 12\nvalue = 55.0"] ;
118 -> 119 ;
120 [label="X[0] <= 1178.5\nmse = 15.073\nsamples = 34\nvalue = 51.529"] ;
118 -> 120 ;
121 [label="mse = 2.975\nsamples = 11\nvalue = 53.455"] ;
120 -> 121 ;
122 [label="X[0] <= 1848.0\nmse = 18.238\nsamples = 23\nvalue = 50.609"] ;
120 -> 122 ;
123 [label="mse = 16.29\nsamples = 10\nvalue = 48.9"] ;
122 -> 123 ;
124 [label="mse = 15.763\nsamples = 13\nvalue = 51.923"] ;
122 -> 124 ;
125 [label="mse = 66.05\nsamples = 11\nvalue = 46.636"] ;
113 -> 125 ;
126 [label="X[0] <= 460.5\nmse = 14.283\nsamples = 210\nvalue = 54.871"] ;
110 -> 126 ;
127 [label="X[3] <= 63.0\nmse = 19.248\nsamples = 77\nvalue = 57.195"] ;
126 -> 127 ;
128 [label="X[10] <= 87.5\nmse = 15.512\nsamples = 57\nvalue = 58.526"] ;
127 -> 128 ;
129 [label="mse = 5.76\nsamples = 10\nvalue = 55.2"] ;
128 -> 129 ;
130 [label="X[11] <= 90.0\nmse = 14.732\nsamples = 47\nvalue = 59.234"] ;
128 -> 130 ;
131 [label="mse = 12.938\nsamples = 16\nvalue = 57.75"] ;
130 -> 131 ;
132 [label="X[0] <= 227.0\nmse = 13.935\nsamples = 31\nvalue = 60.0"] ;
130 -> 132 ;
133 [label="mse = 34.56\nsamples = 10\nvalue = 61.2"] ;
132 -> 133 ;
134 [label="X[4] <= 139.5\nmse = 3.102\nsamples = 21\nvalue = 59.429"] ;
132 -> 134 ;
135 [label="mse = 5.76\nsamples = 10\nvalue = 58.8"] ;
134 -> 135 ;
136 [label="mse = 0.0\nsamples = 11\nvalue = 60.0"] ;
134 -> 136 ;
137 [label="X[0] <= 137.0\nmse = 10.44\nsamples = 20\nvalue = 53.4"] ;
127 -> 137 ;
138 [label="mse = 14.76\nsamples = 10\nvalue = 52.2"] ;
137 -> 138 ;
139 [label="mse = 3.24\nsamples = 10\nvalue = 54.6"] ;
137 -> 139 ;
140 [label="X[0] <= 1875.5\nmse = 6.475\nsamples = 133\nvalue = 53.526"] ;
126 -> 140 ;
141 [label="X[0] <= 1747.0\nmse = 3.678\nsamples = 115\nvalue = 53.974"] ;
140 -> 141 ;
142 [label="X[2] <= 58.5\nmse = 2.351\nsamples = 97\nvalue = 53.753"] ;
141 -> 142 ;
143 [label="X[4] <= 144.0\nmse = 0.528\nsamples = 85\nvalue = 53.965"] ;
142 -> 143 ;
144 [label="mse = 2.109\nsamples = 16\nvalue = 53.625"] ;
143 -> 144 ;
145 [label="X[0] <= 1190.0\nmse = 0.129\nsamples = 69\nvalue = 54.043"] ;
143 -> 145 ;
146 [label="mse = 0.0\nsamples = 59\nvalue = 54.0"] ;
145 -> 146 ;
147 [label="mse = 0.81\nsamples = 10\nvalue = 54.3"] ;
145 -> 147 ;
148 [label="mse = 12.688\nsamples = 12\nvalue = 52.25"] ;
142 -> 148 ;
149 [label="mse = 9.139\nsamples = 18\nvalue = 55.167"] ;
141 -> 149 ;
150 [label="mse = 14.889\nsamples = 18\nvalue = 50.667"] ;
140 -> 150 ;
151 [label="X[4] <= 79.5\nmse = 5.044\nsamples = 78\nvalue = 59.141"] ;
109 -> 151 ;
152 [label="mse = 11.402\nsamples = 19\nvalue = 57.421"] ;
151 -> 152 ;
153 [label="X[11] <= 210.0\nmse = 1.737\nsamples = 59\nvalue = 59.695"] ;
151 -> 153 ;
154 [label="mse = 0.0\nsamples = 39\nvalue = 60.0"] ;
153 -> 154 ;
155 [label="X[4] <= 85.5\nmse = 4.59\nsamples = 20\nvalue = 59.1"] ;
153 -> 155 ;
156 [label="mse = 3.24\nsamples = 10\nvalue = 59.4"] ;
155 -> 156 ;
157 [label="mse = 5.76\nsamples = 10\nvalue = 58.8"] ;
155 -> 157 ;
158 [label="X[3] <= 85.5\nmse = 30.573\nsamples = 83\nvalue = 47.928"] ;
108 -> 158 ;
159 [label="X[2] <= 52.5\nmse = 19.64\nsamples = 60\nvalue = 49.4"] ;
158 -> 159 ;
160 [label="X[3] <= 79.5\nmse = 8.5\nsamples = 36\nvalue = 52.0"] ;
159 -> 160 ;
161 [label="mse = 0.597\nsamples = 14\nvalue = 54.214"] ;
160 -> 161 ;
162 [label="X[14] <= 105.5\nmse = 8.424\nsamples = 22\nvalue = 50.591"] ;
160 -> 162 ;
163 [label="mse = 8.75\nsamples = 12\nvalue = 51.5"] ;
162 -> 163 ;
164 [label="mse = 5.85\nsamples = 10\nvalue = 49.5"] ;
162 -> 164 ;
165 [label="X[3] <= 76.5\nmse = 11.0\nsamples = 24\nvalue = 45.5"] ;
159 -> 165 ;
166 [label="mse = 8.64\nsamples = 10\nvalue = 47.4"] ;
165 -> 166 ;
167 [label="mse = 8.265\nsamples = 14\nvalue = 44.143"] ;
165 -> 167 ;
168 [label="X[14] <= 99.5\nmse = 38.688\nsamples = 23\nvalue = 44.087"] ;
158 -> 168 ;
169 [label="mse = 54.09\nsamples = 10\nvalue = 41.1"] ;
168 -> 169 ;
170 [label="mse = 14.698\nsamples = 13\nvalue = 46.385"] ;
168 -> 170 ;
171 [label="X[4] <= 130.5\nmse = 76.92\nsamples = 303\nvalue = 42.653"] ;
79 -> 171 ;
172 [label="X[0] <= 2306.5\nmse = 86.67\nsamples = 142\nvalue = 37.859"] ;
171 -> 172 ;
173 [label="X[4] <= 76.5\nmse = 76.367\nsamples = 104\nvalue = 39.808"] ;
172 -> 173 ;
174 [label="X[1] <= 2172.0\nmse = 76.748\nsamples = 20\nvalue = 32.55"] ;
173 -> 174 ;
175 [label="mse = 77.04\nsamples = 10\nvalue = 27.6"] ;
174 -> 175 ;
176 [label="mse = 27.45\nsamples = 10\nvalue = 37.5"] ;
174 -> 176 ;
177 [label="X[3] <= 25.5\nmse = 60.749\nsamples = 84\nvalue = 41.536"] ;
173 -> 177 ;
178 [label="X[2] <= 25.5\nmse = 58.662\nsamples = 23\nvalue = 47.348"] ;
177 -> 178 ;
179 [label="mse = 26.01\nsamples = 10\nvalue = 51.3"] ;
178 -> 179 ;
180 [label="mse = 62.521\nsamples = 13\nvalue = 44.308"] ;
178 -> 180 ;
181 [label="X[4] <= 105.5\nmse = 43.996\nsamples = 61\nvalue = 39.344"] ;
177 -> 181 ;
182 [label="X[2] <= 19.5\nmse = 57.848\nsamples = 20\nvalue = 35.55"] ;
181 -> 182 ;
183 [label="mse = 50.49\nsamples = 10\nvalue = 38.1"] ;
182 -> 183 ;
184 [label="mse = 52.2\nsamples = 10\nvalue = 33.0"] ;
182 -> 184 ;
185 [label="X[3] <= 46.5\nmse = 26.791\nsamples = 41\nvalue = 41.195"] ;
181 -> 185 ;
186 [label="X[10] <= 92.0\nmse = 24.49\nsamples = 22\nvalue = 42.682"] ;
185 -> 186 ;
187 [label="mse = 27.688\nsamples = 12\nvalue = 43.75"] ;
186 -> 187 ;
188 [label="mse = 17.64\nsamples = 10\nvalue = 41.4"] ;
186 -> 188 ;
189 [label="mse = 23.934\nsamples = 19\nvalue = 39.474"] ;
185 -> 189 ;
190 [label="X[4] <= 87.0\nmse = 76.039\nsamples = 38\nvalue = 32.526"] ;
172 -> 190 ;
191 [label="mse = 97.25\nsamples = 12\nvalue = 26.5"] ;
190 -> 191 ;
192 [label="X[3] <= 64.5\nmse = 41.751\nsamples = 26\nvalue = 35.308"] ;
190 -> 192 ;
193 [label="mse = 20.16\nsamples = 15\nvalue = 37.8"] ;
192 -> 193 ;
194 [label="mse = 51.174\nsamples = 11\nvalue = 31.909"] ;
192 -> 194 ;
195 [label="X[0] <= 697.0\nmse = 30.166\nsamples = 161\nvalue = 46.882"] ;
171 -> 195 ;
196 [label="X[0] <= 119.0\nmse = 21.038\nsamples = 50\nvalue = 50.04"] ;
195 -> 196 ;
197 [label="mse = 26.438\nsamples = 16\nvalue = 47.25"] ;
196 -> 197 ;
198 [label="X[14] <= 89.0\nmse = 13.111\nsamples = 34\nvalue = 51.353"] ;
196 -> 198 ;
199 [label="mse = 5.0\nsamples = 12\nvalue = 53.0"] ;
198 -> 199 ;
200 [label="X[4] <= 162.0\nmse = 15.248\nsamples = 22\nvalue = 50.455"] ;
198 -> 200 ;
201 [label="mse = 18.75\nsamples = 12\nvalue = 49.5"] ;
200 -> 201 ;
202 [label="mse = 8.64\nsamples = 10\nvalue = 51.6"] ;
200 -> 202 ;
203 [label="X[10] <= 89.5\nmse = 27.762\nsamples = 111\nvalue = 45.459"] ;
195 -> 203 ;
204 [label="X[7] <= 2014.5\nmse = 24.371\nsamples = 48\nvalue = 43.438"] ;
203 -> 204 ;
205 [label="X[0] <= 855.0\nmse = 15.802\nsamples = 27\nvalue = 41.556"] ;
204 -> 205 ;
206 [label="mse = 15.84\nsamples = 10\nvalue = 39.6"] ;
205 -> 206 ;
207 [label="mse = 12.208\nsamples = 17\nvalue = 42.706"] ;
205 -> 207 ;
208 [label="X[2] <= 40.5\nmse = 24.98\nsamples = 21\nvalue = 45.857"] ;
204 -> 208 ;
209 [label="mse = 14.76\nsamples = 10\nvalue = 43.8"] ;
208 -> 209 ;
210 [label="mse = 26.926\nsamples = 11\nvalue = 47.727"] ;
208 -> 210 ;
211 [label="X[0] <= 2150.5\nmse = 24.857\nsamples = 63\nvalue = 47.0"] ;
203 -> 211 ;
212 [label="X[3] <= 58.5\nmse = 19.938\nsamples = 51\nvalue = 48.059"] ;
211 -> 212 ;
213 [label="mse = 25.289\nsamples = 11\nvalue = 50.727"] ;
212 -> 213 ;
214 [label="X[0] <= 1357.5\nmse = 15.969\nsamples = 40\nvalue = 47.325"] ;
212 -> 214 ;
215 [label="X[3] <= 69.0\nmse = 11.79\nsamples = 20\nvalue = 45.9"] ;
214 -> 215 ;
216 [label="mse = 8.64\nsamples = 10\nvalue = 44.4"] ;
215 -> 216 ;
217 [label="mse = 10.44\nsamples = 10\nvalue = 47.4"] ;
215 -> 217 ;
218 [label="X[11] <= 56.0\nmse = 16.088\nsamples = 20\nvalue = 48.75"] ;
214 -> 218 ;
219 [label="mse = 9.45\nsamples = 10\nvalue = 46.5"] ;
218 -> 219 ;
220 [label="mse = 12.6\nsamples = 10\nvalue = 51.0"] ;
218 -> 220 ;
221 [label="mse = 20.75\nsamples = 12\nvalue = 42.5"] ;
211 -> 221 ;
222 [label="X[4] <= 94.5\nmse = 177.442\nsamples = 288\nvalue = 33.142"] ;
46 -> 222 ;
223 [label="X[4] <= 46.5\nmse = 95.987\nsamples = 178\nvalue = 28.567"] ;
222 -> 223 ;
224 [label="X[19] <= 2.5\nmse = 51.267\nsamples = 22\nvalue = 16.773"] ;
223 -> 224 ;
225 [label="mse = 28.562\nsamples = 11\nvalue = 21.273"] ;
224 -> 225 ;
226 [label="mse = 33.471\nsamples = 11\nvalue = 12.273"] ;
224 -> 226 ;
227 [label="X[3] <= 31.5\nmse = 79.908\nsamples = 156\nvalue = 30.231"] ;
223 -> 227 ;
228 [label="X[4] <= 85.5\nmse = 68.996\nsamples = 118\nvalue = 32.11"] ;
227 -> 228 ;
229 [label="X[2] <= 7.5\nmse = 63.645\nsamples = 101\nvalue = 30.832"] ;
228 -> 229 ;
230 [label="mse = 36.125\nsamples = 17\nvalue = 37.588"] ;
229 -> 230 ;
231 [label="X[4] <= 55.5\nmse = 58.106\nsamples = 84\nvalue = 29.464"] ;
229 -> 231 ;
232 [label="mse = 24.881\nsamples = 19\nvalue = 23.526"] ;
231 -> 232 ;
233 [label="X[2] <= 22.5\nmse = 54.498\nsamples = 65\nvalue = 31.2"] ;
231 -> 233 ;
234 [label="X[3] <= 19.5\nmse = 41.225\nsamples = 41\nvalue = 33.512"] ;
233 -> 234 ;
235 [label="X[0] <= 765.5\nmse = 38.157\nsamples = 22\nvalue = 36.545"] ;
234 -> 235 ;
236 [label="mse = 15.84\nsamples = 10\nvalue = 39.6"] ;
235 -> 236 ;
237 [label="mse = 42.5\nsamples = 12\nvalue = 34.0"] ;
235 -> 237 ;
238 [label="mse = 21.789\nsamples = 19\nvalue = 30.0"] ;
234 -> 238 ;
239 [label="X[4] <= 76.5\nmse = 52.438\nsamples = 24\nvalue = 27.25"] ;
233 -> 239 ;
240 [label="mse = 36.36\nsamples = 10\nvalue = 22.2"] ;
239 -> 240 ;
241 [label="mse = 32.694\nsamples = 14\nvalue = 30.857"] ;
239 -> 241 ;
242 [label="mse = 33.384\nsamples = 17\nvalue = 39.706"] ;
228 -> 242 ;
243 [label="X[4] <= 79.5\nmse = 68.765\nsamples = 38\nvalue = 24.395"] ;
227 -> 243 ;
244 [label="mse = 56.982\nsamples = 13\nvalue = 18.692"] ;
243 -> 244 ;
245 [label="X[2] <= 16.5\nmse = 49.19\nsamples = 25\nvalue = 27.36"] ;
243 -> 245 ;
246 [label="mse = 33.471\nsamples = 11\nvalue = 32.727"] ;
245 -> 246 ;
247 [label="mse = 21.122\nsamples = 14\nvalue = 23.143"] ;
245 -> 247 ;
248 [label="X[3] <= 19.5\nmse = 220.575\nsamples = 110\nvalue = 40.545"] ;
222 -> 248 ;
249 [label="mse = 1033.967\nsamples = 11\nvalue = 60.182"] ;
248 -> 249 ;
250 [label="X[4] <= 127.5\nmse = 82.595\nsamples = 99\nvalue = 38.364"] ;
248 -> 250 ;
251 [label="X[3] <= 40.5\nmse = 67.674\nsamples = 80\nvalue = 36.225"] ;
250 -> 251 ;
252 [label="X[4] <= 106.5\nmse = 29.358\nsamples = 27\nvalue = 42.556"] ;
251 -> 252 ;
253 [label="mse = 27.467\nsamples = 17\nvalue = 40.941"] ;
252 -> 253 ;
254 [label="mse = 20.61\nsamples = 10\nvalue = 45.3"] ;
252 -> 254 ;
255 [label="X[2] <= 31.5\nmse = 56.377\nsamples = 53\nvalue = 33.0"] ;
251 -> 255 ;
256 [label="X[3] <= 49.5\nmse = 37.146\nsamples = 41\nvalue = 34.976"] ;
255 -> 256 ;
257 [label="mse = 26.521\nsamples = 13\nvalue = 38.308"] ;
256 -> 257 ;
258 [label="X[4] <= 112.5\nmse = 34.531\nsamples = 28\nvalue = 33.429"] ;
256 -> 258 ;
259 [label="mse = 15.107\nsamples = 14\nvalue = 31.5"] ;
258 -> 259 ;
260 [label="mse = 46.515\nsamples = 14\nvalue = 35.357"] ;
258 -> 260 ;
261 [label="mse = 63.188\nsamples = 12\nvalue = 26.25"] ;
255 -> 261 ;
262 [label="mse = 45.075\nsamples = 19\nvalue = 47.368"] ;
250 -> 262 ;
}